<?xml version="1.0"?>
<opencv_storage>
<opencv_ml_svm>
  <format>3</format>
  <svmType>C_SVC</svmType>
  <kernel>
    <type>RBF</type>
    <gamma>2.2500000000000003e-03</gamma></kernel>
  <C>1.0000000000000001e-01</C>
  <term_criteria><epsilon>1.1920928955078125e-07</epsilon></term_criteria>
  <var_count>3</var_count>
  <class_count>2</class_count>
  <class_labels type_id="opencv-matrix">
    <rows>2</rows>
    <cols>1</cols>
    <dt>i</dt>
    <data>
      -1 1</data></class_labels>
  <sv_total>244</sv_total>
  <support_vectors>
    <_>
      151. 144. 172.</_>
    <_>
      145. 145. 173.</_>
    <_>
      141. 145. 172.</_>
    <_>
      156. 148. 172.</_>
    <_>
      156. 149. 173.</_>
    <_>
      147. 150. 170.</_>
    <_>
      149. 151. 168.</_>
    <_>
      144. 145. 172.</_>
    <_>
      139. 146. 170.</_>
    <_>
      144. 147. 171.</_>
    <_>
      133. 149. 166.</_>
    <_>
      141. 145. 171.</_>
    <_>
      133. 147. 170.</_>
    <_>
      126. 150. 167.</_>
    <_>
      131. 148. 168.</_>
    <_>
      132. 154. 167.</_>
    <_>
      125. 151. 165.</_>
    <_>
      127. 149. 175.</_>
    <_>
      110. 151. 163.</_>
    <_>
      102. 146. 160.</_>
    <_>
      102. 151. 161.</_>
    <_>
      97. 151. 157.</_>
    <_>
      110. 155. 163.</_>
    <_>
      107. 150. 164.</_>
    <_>
      107. 150. 164.</_>
    <_>
      105. 151. 163.</_>
    <_>
      107. 150. 162.</_>
    <_>
      109. 151. 164.</_>
    <_>
      110. 150. 164.</_>
    <_>
      111. 150. 169.</_>
    <_>
      146. 157. 182.</_>
    <_>
      143. 157. 181.</_>
    <_>
      141. 157. 180.</_>
    <_>
      149. 156. 184.</_>
    <_>
      138. 158. 177.</_>
    <_>
      133. 157. 170.</_>
    <_>
      129. 154. 167.</_>
    <_>
      121. 150. 173.</_>
    <_>
      133. 154. 178.</_>
    <_>
      110. 153. 162.</_>
    <_>
      107. 152. 164.</_>
    <_>
      110. 154. 162.</_>
    <_>
      109. 151. 168.</_>
    <_>
      107. 153. 161.</_>
    <_>
      116. 152. 162.</_>
    <_>
      167. 145. 181.</_>
    <_>
      189. 140. 191.</_>
    <_>
      213. 135. 197.</_>
    <_>
      219. 130. 197.</_>
    <_>
      211. 136. 197.</_>
    <_>
      210. 140. 164.</_>
    <_>
      215. 138. 178.</_>
    <_>
      232. 138. 140.</_>
    <_>
      210. 138. 194.</_>
    <_>
      209. 138. 200.</_>
    <_>
      216. 133. 197.</_>
    <_>
      221. 129. 198.</_>
    <_>
      219. 130. 199.</_>
    <_>
      211. 136. 200.</_>
    <_>
      173. 144. 181.</_>
    <_>
      192. 145. 165.</_>
    <_>
      171. 143. 185.</_>
    <_>
      170. 143. 184.</_>
    <_>
      171. 146. 179.</_>
    <_>
      210. 137. 201.</_>
    <_>
      178. 144. 191.</_>
    <_>
      190. 143. 195.</_>
    <_>
      173. 144. 187.</_>
    <_>
      173. 144. 187.</_>
    <_>
      209. 137. 201.</_>
    <_>
      208. 138. 201.</_>
    <_>
      211. 137. 202.</_>
    <_>
      210. 137. 200.</_>
    <_>
      211. 136. 201.</_>
    <_>
      215. 133. 201.</_>
    <_>
      208. 138. 201.</_>
    <_>
      160. 148. 175.</_>
    <_>
      102. 141. 90.</_>
    <_>
      93. 142. 92.</_>
    <_>
      160. 147. 173.</_>
    <_>
      197. 149. 197.</_>
    <_>
      190. 154. 196.</_>
    <_>
      188. 155. 195.</_>
    <_>
      189. 153. 187.</_>
    <_>
      189. 154. 196.</_>
    <_>
      171. 161. 191.</_>
    <_>
      170. 162. 191.</_>
    <_>
      171. 161. 191.</_>
    <_>
      172. 160. 192.</_>
    <_>
      171. 162. 190.</_>
    <_>
      167. 160. 190.</_>
    <_>
      161. 158. 177.</_>
    <_>
      182. 148. 184.</_>
    <_>
      198. 146. 188.</_>
    <_>
      196. 146. 188.</_>
    <_>
      194. 149. 187.</_>
    <_>
      190. 154. 196.</_>
    <_>
      187. 156. 195.</_>
    <_>
      188. 156. 195.</_>
    <_>
      191. 151. 188.</_>
    <_>
      185. 150. 184.</_>
    <_>
      161. 160. 188.</_>
    <_>
      161. 159. 188.</_>
    <_>
      75. 137. 99.</_>
    <_>
      160. 159. 187.</_>
    <_>
      75. 137. 99.</_>
    <_>
      169. 115. 98.</_>
    <_>
      162. 115. 96.</_>
    <_>
      158. 118. 94.</_>
    <_>
      183. 120. 118.</_>
    <_>
      146. 121. 123.</_>
    <_>
      90. 138. 89.</_>
    <_>
      159. 131. 117.</_>
    <_>
      154. 131. 115.</_>
    <_>
      148. 124. 89.</_>
    <_>
      133. 130. 86.</_>
    <_>
      141. 125. 91.</_>
    <_>
      174. 120. 129.</_>
    <_>
      120. 108. 137.</_>
    <_>
      152. 130. 159.</_>
    <_>
      178. 136. 165.</_>
    <_>
      105. 147. 104.</_>
    <_>
      218. 131. 111.</_>
    <_>
      201. 126. 103.</_>
    <_>
      131. 146. 152.</_>
    <_>
      115. 139. 142.</_>
    <_>
      64. 137. 120.</_>
    <_>
      208. 124. 139.</_>
    <_>
      60. 137. 103.</_>
    <_>
      169. 121. 112.</_>
    <_>
      135. 152. 109.</_>
    <_>
      222. 144. 137.</_>
    <_>
      185. 134. 126.</_>
    <_>
      163. 154. 109.</_>
    <_>
      86. 138. 91.</_>
    <_>
      158. 122. 124.</_>
    <_>
      181. 137. 156.</_>
    <_>
      119. 146. 78.</_>
    <_>
      127. 142. 80.</_>
    <_>
      195. 106. 98.</_>
    <_>
      204. 102. 103.</_>
    <_>
      226. 95. 110.</_>
    <_>
      223. 97. 109.</_>
    <_>
      246. 114. 123.</_>
    <_>
      235. 106. 116.</_>
    <_>
      255. 128. 128.</_>
    <_>
      146. 135. 154.</_>
    <_>
      146. 135. 154.</_>
    <_>
      146. 135. 154.</_>
    <_>
      151. 141. 153.</_>
    <_>
      124. 140. 148.</_>
    <_>
      255. 128. 128.</_>
    <_>
      175. 142. 93.</_>
    <_>
      200. 108. 131.</_>
    <_>
      98. 148. 105.</_>
    <_>
      79. 152. 103.</_>
    <_>
      57. 157. 91.</_>
    <_>
      119. 154. 103.</_>
    <_>
      166. 154. 107.</_>
    <_>
      145. 171. 95.</_>
    <_>
      117. 174. 93.</_>
    <_>
      102. 171. 92.</_>
    <_>
      72. 165. 90.</_>
    <_>
      83. 167. 91.</_>
    <_>
      128. 176. 94.</_>
    <_>
      132. 176. 96.</_>
    <_>
      145. 170. 99.</_>
    <_>
      253. 123. 143.</_>
    <_>
      245. 126. 150.</_>
    <_>
      51. 143. 90.</_>
    <_>
      72. 143. 82.</_>
    <_>
      94. 127. 141.</_>
    <_>
      103. 139. 80.</_>
    <_>
      28. 128. 128.</_>
    <_>
      213. 102. 102.</_>
    <_>
      80. 131. 119.</_>
    <_>
      133. 108. 133.</_>
    <_>
      197. 131. 139.</_>
    <_>
      167. 132. 162.</_>
    <_>
      116. 136. 112.</_>
    <_>
      209. 139. 114.</_>
    <_>
      103. 138. 150.</_>
    <_>
      96. 138. 91.</_>
    <_>
      107. 126. 151.</_>
    <_>
      221. 120. 136.</_>
    <_>
      215. 121. 135.</_>
    <_>
      188. 143. 167.</_>
    <_>
      119. 177. 170.</_>
    <_>
      117. 178. 163.</_>
    <_>
      124. 184. 168.</_>
    <_>
      105. 184. 174.</_>
    <_>
      91. 180. 163.</_>
    <_>
      84. 177. 154.</_>
    <_>
      94. 178. 158.</_>
    <_>
      171. 137. 85.</_>
    <_>
      190. 113. 89.</_>
    <_>
      179. 117. 89.</_>
    <_>
      119. 139. 148.</_>
    <_>
      215. 131. 167.</_>
    <_>
      209. 132. 175.</_>
    <_>
      221. 128. 173.</_>
    <_>
      163. 141. 77.</_>
    <_>
      72. 134. 142.</_>
    <_>
      107. 147. 74.</_>
    <_>
      92. 156. 71.</_>
    <_>
      90. 155. 73.</_>
    <_>
      160. 125. 85.</_>
    <_>
      50. 130. 124.</_>
    <_>
      33. 128. 128.</_>
    <_>
      43. 134. 129.</_>
    <_>
      179. 130. 165.</_>
    <_>
      219. 130. 166.</_>
    <_>
      228. 127. 112.</_>
    <_>
      193. 132. 169.</_>
    <_>
      204. 125. 178.</_>
    <_>
      203. 126. 170.</_>
    <_>
      211. 127. 176.</_>
    <_>
      233. 119. 161.</_>
    <_>
      227. 124. 201.</_>
    <_>
      113. 122. 103.</_>
    <_>
      112. 182. 157.</_>
    <_>
      145. 137. 83.</_>
    <_>
      94. 170. 121.</_>
    <_>
      110. 175. 163.</_>
    <_>
      190. 144. 113.</_>
    <_>
      103. 140. 135.</_>
    <_>
      68. 124. 139.</_>
    <_>
      58. 128. 138.</_>
    <_>
      142. 127. 107.</_>
    <_>
      193. 134. 169.</_>
    <_>
      141. 129. 161.</_>
    <_>
      248. 118. 150.</_>
    <_>
      58. 135. 136.</_>
    <_>
      219. 130. 141.</_>
    <_>
      237. 135. 132.</_>
    <_>
      123. 163. 148.</_>
    <_>
      144. 147. 143.</_>
    <_>
      126. 144. 143.</_>
    <_>
      148. 143. 153.</_>
    <_>
      129. 194. 178.</_>
    <_>
      142. 189. 170.</_>
    <_>
      137. 188. 172.</_>
    <_>
      96. 180. 148.</_>
    <_>
      106. 136. 88.</_></support_vectors>
  <decision_functions>
    <_>
      <sv_count>244</sv_count>
      <rho>-7.3946625128196686e-01</rho>
      <alpha>
        1.0000000000000001e-01 4.8583048634702440e-02
        3.8147909230842283e-02 8.3561893353929273e-02
        3.7662541799274515e-02 8.6287115528764960e-02
        2.4691048601828112e-02 7.1243666586002202e-02
        9.9998230556671591e-02 1.0000000000000001e-01
        1.0000000000000001e-01 1.0000000000000001e-01
        1.0000000000000001e-01 1.0000000000000001e-01
        4.5649222770968015e-02 4.7769300080764694e-02
        6.8168749200645862e-02 1.0000000000000001e-01
        2.7234462966335610e-02 1.0000000000000001e-01
        9.3677287111063684e-02 1.3098088872579062e-02
        4.9978881221670303e-02 1.0373810824848529e-02
        8.7979910290200081e-02 4.1043359097854865e-02
        9.3624847589653587e-02 3.2519939771589249e-02
        1.0000000000000001e-01 6.0554286930555951e-02
        1.0000000000000001e-01 5.9535064822301781e-02
        1.0000000000000001e-01 5.5293361650850976e-02
        1.4902898560231429e-03 1.4044311018284432e-02
        8.8034045558770979e-02 1.0000000000000001e-01
        5.3474872556515694e-02 5.2441094010642113e-02
        1.4920832031931527e-02 8.5913018496456231e-02
        1.0000000000000001e-01 1.0000000000000001e-01
        1.0000000000000001e-01 1.0000000000000001e-01
        2.3306088323267513e-02 4.6410711957383478e-02
        3.5611990032453640e-02 1.5195849138060736e-02
        5.7766303084155627e-03 1.0000000000000001e-01
        4.9559492290478192e-03 9.3087549173943310e-02
        3.9429200730150764e-02 1.7204202516143480e-02
        2.4454564331549827e-03 5.8885736582397553e-04
        1.0000000000000001e-01 6.2010909823494997e-03
        2.9345625965655920e-02 1.0000000000000001e-01
        1.0000000000000001e-01 4.1621533508675097e-02
        2.4747763440293503e-03 8.5381322469740117e-02
        1.0000000000000001e-01 1.0000000000000001e-01
        1.0000000000000001e-01 1.0000000000000001e-01
        3.2645023015751472e-02 1.0000000000000001e-01
        1.0000000000000001e-01 1.0000000000000001e-01
        5.9011343919711509e-02 4.7076761130155749e-02
        6.2888952350426186e-02 1.0000000000000001e-01
        1.0000000000000001e-01 9.4616469222398414e-02
        4.0167369219235589e-02 1.0000000000000001e-01
        4.0815741199520784e-02 1.0000000000000001e-01
        1.8798599433733167e-02 2.8399986602547250e-02
        1.0000000000000001e-01 1.0000000000000001e-01
        6.5912981558081382e-02 1.0000000000000001e-01
        3.8538810781014787e-02 6.0192347992852065e-02
        1.0000000000000001e-01 7.7925106252079296e-02
        7.6065924357299849e-02 1.0000000000000001e-01
        4.7082025549888225e-02 1.5250880481323593e-02
        1.0000000000000001e-01 1.0000000000000001e-01
        2.5661725777329027e-02 1.0000000000000001e-01
        9.6176111785417615e-02 4.7424122294479266e-02
        3.9758680820849546e-02 1.0000000000000001e-01
        1.0000000000000001e-01 2.8014872270030348e-02
        1.0000000000000001e-01 2.2455454311640869e-02
        7.5290652241559189e-02 1.0000000000000001e-01
        9.7558411443084553e-02 2.6352870329778309e-02
        1.0000000000000001e-01 1.0000000000000001e-01
        1.0000000000000001e-01 1.0000000000000001e-01
        1.0000000000000001e-01 1.0000000000000001e-01
        4.6083018672905984e-02 1.0000000000000001e-01
        3.5665856934473050e-02 2.5693938317729744e-03
        1.9100063719583775e-02 1.0000000000000001e-01
        8.0284500423104269e-02 1.0000000000000001e-01
        1.0000000000000001e-01 2.9769792447354808e-03
        3.5522485046981189e-02 1.0000000000000001e-01
        1.0000000000000001e-01 1.0000000000000001e-01
        1.0000000000000001e-01 6.4991109635916172e-02
        8.5177050623559208e-02 1.0000000000000001e-01
        1.9659455508283945e-02 -1.0000000000000001e-01
        -1.4574401911210805e-02 -1.0000000000000001e-01
        -1.0000000000000001e-01 -1.0000000000000001e-01
        -1.0000000000000001e-01 -1.0000000000000001e-01
        -1.0000000000000001e-01 -1.0000000000000001e-01
        -1.0000000000000001e-01 -1.0000000000000001e-01
        -1.0000000000000001e-01 -1.0000000000000001e-01
        -1.0000000000000001e-01 -1.0000000000000001e-01
        -8.0778249370734630e-03 -1.0000000000000001e-01
        -1.0000000000000001e-01 -1.0000000000000001e-01
        -1.0000000000000001e-01 -1.0000000000000001e-01
        -2.2630904413797902e-02 -1.0000000000000001e-01
        -1.0000000000000001e-01 -1.0000000000000001e-01
        -1.0000000000000001e-01 -1.0000000000000001e-01
        -1.0000000000000001e-01 -1.0000000000000001e-01
        -1.0000000000000001e-01 -1.0000000000000001e-01
        -1.0000000000000001e-01 -1.0000000000000001e-01
        -1.0000000000000001e-01 -1.0000000000000001e-01
        -1.0000000000000001e-01 -1.0000000000000001e-01
        -1.0000000000000001e-01 -1.0000000000000001e-01
        -3.2767191651885720e-02 -1.0000000000000001e-01
        -5.8321022090783582e-02 -1.0000000000000001e-01
        -1.0000000000000001e-01 -2.0459150745619246e-02
        -1.0000000000000001e-01 -1.0000000000000001e-01
        -2.5741108373920268e-02 -1.0000000000000001e-01
        -1.0000000000000001e-01 -1.0000000000000001e-01
        -1.0000000000000001e-01 -1.0000000000000001e-01
        -1.0000000000000001e-01 -1.0000000000000001e-01
        -1.0000000000000001e-01 -1.0000000000000001e-01
        -1.0000000000000001e-01 -1.0000000000000001e-01
        -1.0000000000000001e-01 -1.0000000000000001e-01
        -1.0000000000000001e-01 -1.0000000000000001e-01
        -1.0000000000000001e-01 -1.0000000000000001e-01
        -1.0000000000000001e-01 -1.0000000000000001e-01
        -1.0000000000000001e-01 -1.0000000000000001e-01
        -1.0000000000000001e-01 -7.1478958389965385e-03
        -1.0000000000000001e-01 -1.0000000000000001e-01
        -1.0000000000000001e-01 -1.0000000000000001e-01
        -1.0000000000000001e-01 -4.3553385435459530e-02
        -1.0000000000000001e-01 -1.0000000000000001e-01
        -9.2034763006803563e-02 -1.0000000000000001e-01
        -1.0000000000000001e-01 -1.0000000000000001e-01
        -1.0000000000000001e-01 -1.0000000000000001e-01
        -1.0000000000000001e-01 -1.0000000000000001e-01
        -1.0000000000000001e-01 -1.0000000000000001e-01
        -1.0000000000000001e-01 -1.0000000000000001e-01
        -1.0000000000000001e-01 -1.0000000000000001e-01
        -4.0904779720053411e-03 -1.2220957867344995e-03
        -1.0000000000000001e-01 -1.0000000000000001e-01
        -2.1878179414764613e-02 -1.0000000000000001e-01
        -3.9644061903266040e-02 -1.0000000000000001e-01
        -1.0000000000000001e-01 -1.0000000000000001e-01
        -1.0000000000000001e-01 -1.0000000000000001e-01</alpha>
      <index>
        141 143 142 140 139 138 137 136 151 150 149 148 147 146 145 135
        144 133 132 131 130 129 134 165 164 163 162 166 161 160 159 170
        169 168 167 155 154 153 152 158 157 156 120 119 118 117 121 116
        110 109 108 107 106 105 115 114 113 112 111 127 126 125 124 123
        122 128 224 223 225 222 221 231 230 229 228 227 226 214 213 212
        211 210 209 208 207 220 219 218 217 216 215 239 240 243 242 241
        233 232 238 237 236 235 234 177 182 181 180 179 178 172 171 176
        175 174 173 201 200 199 198 197 196 195 194 206 205 204 203 202
        186 185 184 183 187 193 192 191 190 188 189 103 104 62 61 60 59
        63 58 44 43 42 41 40 39 38 37 36 48 57 56 55 54 53 52 51 50 49
        47 46 45 74 73 72 71 70 75 64 69 68 67 66 65 10 14 13 12 11 5 4
        3 2 1 0 7 9 8 6 31 30 29 28 27 26 25 24 23 22 21 35 34 33 32 15
        20 19 18 17 16 85 91 90 89 88 87 86 100 102 101 97 96 95 94 93
        92 99 98 76 82 81 80 79 78 84 83 77</index></_></decision_functions></opencv_ml_svm>
</opencv_storage>
