<?xml version="1.0"?>
<opencv_storage>
<opencv_ml_svm>
  <format>3</format>
  <svmType>C_SVC</svmType>
  <kernel>
    <type>RBF</type>
    <gamma>1.5000000000000001e-04</gamma></kernel>
  <C>5.0000000000000000e-01</C>
  <term_criteria><epsilon>1.1920928955078125e-07</epsilon></term_criteria>
  <var_count>3</var_count>
  <class_count>2</class_count>
  <class_labels type_id="opencv-matrix">
    <rows>2</rows>
    <cols>1</cols>
    <dt>i</dt>
    <data>
      -1 1</data></class_labels>
  <sv_total>69</sv_total>
  <support_vectors>
    <_>
      37. 148. 105.</_>
    <_>
      42. 147. 106.</_>
    <_>
      41. 148. 105.</_>
    <_>
      44. 149. 104.</_>
    <_>
      42. 150. 106.</_>
    <_>
      65. 154. 101.</_>
    <_>
      33. 147. 105.</_>
    <_>
      59. 152. 103.</_>
    <_>
      48. 150. 104.</_>
    <_>
      48. 150. 104.</_>
    <_>
      38. 148. 106.</_>
    <_>
      31. 144. 109.</_>
    <_>
      34. 146. 112.</_>
    <_>
      42. 145. 112.</_>
    <_>
      52. 148. 100.</_>
    <_>
      41. 148. 108.</_>
    <_>
      40. 147. 108.</_>
    <_>
      18. 145. 105.</_>
    <_>
      29. 147. 106.</_>
    <_>
      35. 148. 106.</_>
    <_>
      40. 149. 107.</_>
    <_>
      39. 147. 107.</_>
    <_>
      42. 147. 109.</_>
    <_>
      39. 147. 107.</_>
    <_>
      33. 148. 106.</_>
    <_>
      111. 167. 75.</_>
    <_>
      106. 168. 76.</_>
    <_>
      110. 172. 80.</_>
    <_>
      104. 173. 77.</_>
    <_>
      105. 169. 75.</_>
    <_>
      104. 170. 73.</_>
    <_>
      87. 157. 99.</_>
    <_>
      84. 160. 85.</_>
    <_>
      7. 128. 128.</_>
    <_>
      250. 116. 168.</_>
    <_>
      15. 128. 128.</_>
    <_>
      20. 128. 128.</_>
    <_>
      6. 128. 128.</_>
    <_>
      7. 128. 128.</_>
    <_>
      9. 128. 128.</_>
    <_>
      91. 132. 92.</_>
    <_>
      82. 133. 95.</_>
    <_>
      43. 131. 107.</_>
    <_>
      70. 131. 103.</_>
    <_>
      73. 132. 103.</_>
    <_>
      54. 165. 149.</_>
    <_>
      51. 162. 150.</_>
    <_>
      46. 160. 149.</_>
    <_>
      44. 160. 149.</_>
    <_>
      17. 130. 114.</_>
    <_>
      70. 134. 97.</_>
    <_>
      85. 134. 95.</_>
    <_>
      42. 158. 144.</_>
    <_>
      49. 161. 152.</_>
    <_>
      255. 128. 128.</_>
    <_>
      88. 133. 95.</_>
    <_>
      81. 132. 98.</_>
    <_>
      76. 132. 99.</_>
    <_>
      78. 132. 100.</_>
    <_>
      36. 129. 128.</_>
    <_>
      71. 133. 99.</_>
    <_>
      70. 137. 97.</_>
    <_>
      79. 132. 97.</_>
    <_>
      81. 133. 96.</_>
    <_>
      77. 130. 102.</_>
    <_>
      51. 142. 100.</_>
    <_>
      79. 131. 99.</_>
    <_>
      136. 148. 74.</_>
    <_>
      240. 121. 176.</_></support_vectors>
  <decision_functions>
    <_>
      <sv_count>69</sv_count>
      <rho>-8.2782848332732450e-01</rho>
      <alpha>
        8.1885663858543123e-02 5.0000000000000000e-01
        5.0000000000000000e-01 5.0000000000000000e-01
        5.0000000000000000e-01 5.0000000000000000e-01
        5.0000000000000000e-01 5.0000000000000000e-01
        5.0000000000000000e-01 1.4269005298462256e-01
        5.0000000000000000e-01 5.0000000000000000e-01
        5.0000000000000000e-01 5.0000000000000000e-01
        5.0000000000000000e-01 5.0000000000000000e-01
        5.0000000000000000e-01 5.0000000000000000e-01
        5.0000000000000000e-01 5.0000000000000000e-01
        5.0000000000000000e-01 5.0000000000000000e-01
        5.0000000000000000e-01 1.7608948166951635e-01
        5.0000000000000000e-01 4.4780397830801466e-01
        5.0000000000000000e-01 5.0000000000000000e-01
        1.4877604321770961e-02 5.0000000000000000e-01
        6.9877155978621944e-02 5.0000000000000000e-01
        5.0000000000000000e-01 5.0000000000000000e-01
        5.0000000000000000e-01 5.0000000000000000e-01
        -5.0000000000000000e-01 -5.0000000000000000e-01
        -5.0000000000000000e-01 -5.0000000000000000e-01
        -5.0000000000000000e-01 -5.0000000000000000e-01
        -5.0000000000000000e-01 -5.0000000000000000e-01
        -5.0000000000000000e-01 -5.0000000000000000e-01
        -5.0000000000000000e-01 -5.0000000000000000e-01
        -5.0000000000000000e-01 -5.0000000000000000e-01
        -5.0000000000000000e-01 -5.0000000000000000e-01
        -5.0000000000000000e-01 -5.0000000000000000e-01
        -5.0000000000000000e-01 -5.0000000000000000e-01
        -5.0000000000000000e-01 -5.0000000000000000e-01
        -5.0000000000000000e-01 -3.1957181100387066e-01
        -5.0000000000000000e-01 -5.0000000000000000e-01
        -5.0000000000000000e-01 -1.1365212611721892e-01
        -5.0000000000000000e-01 -5.0000000000000000e-01
        -5.0000000000000000e-01 -5.0000000000000000e-01
        -5.0000000000000000e-01</alpha>
      <index>
        54 60 61 62 55 56 57 58 59 40 41 42 43 44 50 45 46 47 48 49 63
        51 52 53 66 64 65 67 68 33 34 35 37 38 39 36 8 9 10 11 18 17 12
        16 15 14 13 4 3 2 1 0 7 6 5 32 31 30 29 28 27 26 25 24 23 22 21
        20 19</index></_></decision_functions></opencv_ml_svm>
</opencv_storage>
