<?xml version="1.0"?>
<opencv_storage>
<opencv_ml_svm>
  <format>3</format>
  <svmType>C_SVC</svmType>
  <kernel>
    <type>RBF</type>
    <gamma>1.0000000000000001e-05</gamma></kernel>
  <C>2.5000000000000000e+00</C>
  <term_criteria><epsilon>1.1920928955078125e-07</epsilon></term_criteria>
  <var_count>3</var_count>
  <class_count>2</class_count>
  <class_labels type_id="opencv-matrix">
    <rows>2</rows>
    <cols>1</cols>
    <dt>i</dt>
    <data>
      -1 1</data></class_labels>
  <sv_total>66</sv_total>
  <support_vectors>
    <_>
      136. 157. 147.</_>
    <_>
      135. 156. 147.</_>
    <_>
      135. 156. 147.</_>
    <_>
      136. 155. 145.</_>
    <_>
      143. 156. 152.</_>
    <_>
      148. 161. 137.</_>
    <_>
      113. 160. 138.</_>
    <_>
      143. 156. 152.</_>
    <_>
      114. 160. 139.</_>
    <_>
      109. 158. 126.</_>
    <_>
      117. 159. 132.</_>
    <_>
      118. 163. 132.</_>
    <_>
      112. 158. 137.</_>
    <_>
      109. 156. 136.</_>
    <_>
      112. 159. 138.</_>
    <_>
      110. 159. 141.</_>
    <_>
      118. 163. 130.</_>
    <_>
      110. 159. 142.</_>
    <_>
      108. 159. 141.</_>
    <_>
      113. 161. 134.</_>
    <_>
      109. 157. 134.</_>
    <_>
      105. 157. 130.</_>
    <_>
      111. 161. 134.</_>
    <_>
      111. 161. 137.</_>
    <_>
      161. 166. 134.</_>
    <_>
      112. 160. 137.</_>
    <_>
      93. 139. 133.</_>
    <_>
      122. 160. 131.</_>
    <_>
      115. 156. 145.</_>
    <_>
      142. 162. 131.</_>
    <_>
      149. 154. 152.</_>
    <_>
      121. 162. 131.</_>
    <_>
      116. 157. 145.</_>
    <_>
      96. 142. 82.</_>
    <_>
      120. 187. 160.</_>
    <_>
      92. 140. 87.</_>
    <_>
      87. 145. 77.</_>
    <_>
      223. 121. 158.</_>
    <_>
      196. 125. 165.</_>
    <_>
      79. 126. 131.</_>
    <_>
      142. 123. 135.</_>
    <_>
      161. 122. 158.</_>
    <_>
      231. 126. 162.</_>
    <_>
      218. 125. 162.</_>
    <_>
      183. 123. 165.</_>
    <_>
      107. 125. 155.</_>
    <_>
      98. 121. 127.</_>
    <_>
      95. 117. 132.</_>
    <_>
      77. 123. 129.</_>
    <_>
      204. 120. 162.</_>
    <_>
      153. 123. 158.</_>
    <_>
      190. 127. 137.</_>
    <_>
      18. 128. 128.</_>
    <_>
      84. 124. 128.</_>
    <_>
      144. 127. 124.</_>
    <_>
      177. 125. 144.</_>
    <_>
      88. 123. 125.</_>
    <_>
      84. 129. 118.</_>
    <_>
      149. 137. 131.</_>
    <_>
      82. 125. 122.</_>
    <_>
      110. 149. 68.</_>
    <_>
      89. 150. 75.</_>
    <_>
      92. 148. 75.</_>
    <_>
      62. 129. 117.</_>
    <_>
      80. 126. 117.</_>
    <_>
      113. 149. 70.</_></support_vectors>
  <decision_functions>
    <_>
      <sv_count>66</sv_count>
      <rho>-2.3769874994676816e+00</rho>
      <alpha>
        2.3390432838399335e+00 2.5000000000000000e+00
        2.5000000000000000e+00 2.5000000000000000e+00
        2.5000000000000000e+00 2.5000000000000000e+00
        2.5000000000000000e+00 2.5000000000000000e+00
        2.5000000000000000e+00 5.5659328103533590e-01
        2.5000000000000000e+00 2.5000000000000000e+00
        2.5000000000000000e+00 2.5000000000000000e+00
        2.5000000000000000e+00 2.5000000000000000e+00
        2.5000000000000000e+00 2.5000000000000000e+00
        2.5000000000000000e+00 2.5000000000000000e+00
        2.5000000000000000e+00 2.2746021946546402e+00
        2.5000000000000000e+00 2.5000000000000000e+00
        2.5000000000000000e+00 2.5000000000000000e+00
        2.5000000000000000e+00 2.5000000000000000e+00
        2.5000000000000000e+00 2.5000000000000000e+00
        2.5000000000000000e+00 2.5000000000000000e+00
        2.5000000000000000e+00 -2.5000000000000000e+00
        -2.5000000000000000e+00 -2.5000000000000000e+00
        -2.5000000000000000e+00 -2.5000000000000000e+00
        -2.5000000000000000e+00 -2.5000000000000000e+00
        -2.5000000000000000e+00 -2.5000000000000000e+00
        -2.5000000000000000e+00 -2.5000000000000000e+00
        -2.5000000000000000e+00 -2.5000000000000000e+00
        -2.5000000000000000e+00 -2.5000000000000000e+00
        -2.5000000000000000e+00 -2.5000000000000000e+00
        -2.5000000000000000e+00 -2.5000000000000000e+00
        -2.5000000000000000e+00 -2.5000000000000000e+00
        -2.5000000000000000e+00 -2.5000000000000000e+00
        -2.5000000000000000e+00 -2.5000000000000000e+00
        -1.7023875952990811e-01 -2.5000000000000000e+00
        -2.5000000000000000e+00 -2.5000000000000000e+00
        -2.5000000000000000e+00 -2.5000000000000000e+00
        -2.5000000000000000e+00 -2.5000000000000000e+00</alpha>
      <index>
        36 35 34 43 42 41 40 39 38 37 33 65 61 60 59 62 64 63 53 55 54
        52 51 50 49 48 47 46 45 44 58 57 56 26 25 29 30 31 32 27 28 4 3
        2 1 0 7 11 10 9 8 24 18 23 22 21 20 19 17 16 15 14 13 12 6 5</index></_></decision_functions></opencv_ml_svm>
</opencv_storage>
