<?xml version="1.0"?>
<opencv_storage>
<opencv_ml_svm>
  <format>3</format>
  <svmType>C_SVC</svmType>
  <kernel>
    <type>RBF</type>
    <gamma>2.2500000000000003e-03</gamma></kernel>
  <C>5.0000000000000000e-01</C>
  <term_criteria><epsilon>1.1920928955078125e-07</epsilon></term_criteria>
  <var_count>3</var_count>
  <class_count>2</class_count>
  <class_labels type_id="opencv-matrix">
    <rows>2</rows>
    <cols>1</cols>
    <dt>i</dt>
    <data>
      -1 1</data></class_labels>
  <sv_total>175</sv_total>
  <support_vectors>
    <_>
      67. 152. 86.</_>
    <_>
      48. 149. 92.</_>
    <_>
      49. 149. 92.</_>
    <_>
      47. 150. 92.</_>
    <_>
      78. 155. 84.</_>
    <_>
      77. 154. 84.</_>
    <_>
      79. 153. 85.</_>
    <_>
      77. 154. 82.</_>
    <_>
      51. 145. 93.</_>
    <_>
      56. 148. 90.</_>
    <_>
      95. 155. 82.</_>
    <_>
      102. 155. 81.</_>
    <_>
      103. 157. 79.</_>
    <_>
      128. 154. 84.</_>
    <_>
      133. 159. 87.</_>
    <_>
      127. 159. 82.</_>
    <_>
      76. 154. 82.</_>
    <_>
      66. 151. 86.</_>
    <_>
      178. 158. 82.</_>
    <_>
      176. 176. 80.</_>
    <_>
      129. 180. 59.</_>
    <_>
      138. 189. 64.</_>
    <_>
      149. 190. 66.</_>
    <_>
      152. 191. 67.</_>
    <_>
      164. 158. 74.</_>
    <_>
      184. 159. 85.</_>
    <_>
      184. 160. 85.</_>
    <_>
      186. 159. 87.</_>
    <_>
      161. 187. 71.</_>
    <_>
      126. 182. 61.</_>
    <_>
      115. 174. 62.</_>
    <_>
      129. 182. 60.</_>
    <_>
      142. 139. 68.</_>
    <_>
      144. 160. 64.</_>
    <_>
      139. 161. 63.</_>
    <_>
      144. 154. 85.</_>
    <_>
      140. 155. 83.</_>
    <_>
      147. 156. 83.</_>
    <_>
      104. 169. 63.</_>
    <_>
      102. 167. 63.</_>
    <_>
      167. 183. 75.</_>
    <_>
      156. 162. 87.</_>
    <_>
      174. 156. 96.</_>
    <_>
      114. 178. 75.</_>
    <_>
      98. 158. 72.</_>
    <_>
      96. 156. 73.</_>
    <_>
      91. 158. 73.</_>
    <_>
      91. 160. 71.</_>
    <_>
      91. 160. 71.</_>
    <_>
      104. 153. 84.</_>
    <_>
      98. 153. 85.</_>
    <_>
      82. 167. 68.</_>
    <_>
      82. 168. 68.</_>
    <_>
      79. 167. 69.</_>
    <_>
      69. 164. 72.</_>
    <_>
      121. 158. 72.</_>
    <_>
      117. 161. 71.</_>
    <_>
      78. 166. 70.</_>
    <_>
      65. 164. 72.</_>
    <_>
      61. 163. 73.</_>
    <_>
      106. 131. 129.</_>
    <_>
      149. 112. 114.</_>
    <_>
      98. 132. 132.</_>
    <_>
      128. 128. 139.</_>
    <_>
      207. 126. 136.</_>
    <_>
      195. 127. 118.</_>
    <_>
      114. 137. 142.</_>
    <_>
      182. 109. 91.</_>
    <_>
      228. 144. 127.</_>
    <_>
      82. 132. 133.</_>
    <_>
      191. 137. 145.</_>
    <_>
      249. 110. 195.</_>
    <_>
      119. 154. 80.</_>
    <_>
      213. 119. 164.</_>
    <_>
      139. 139. 147.</_>
    <_>
      201. 127. 96.</_>
    <_>
      184. 137. 93.</_>
    <_>
      195. 89. 131.</_>
    <_>
      196. 87. 129.</_>
    <_>
      120. 144. 75.</_>
    <_>
      101. 147. 75.</_>
    <_>
      191. 91. 127.</_>
    <_>
      119. 192. 164.</_>
    <_>
      87. 149. 76.</_>
    <_>
      92. 148. 74.</_>
    <_>
      94. 147. 74.</_>
    <_>
      92. 147. 76.</_>
    <_>
      88. 168. 125.</_>
    <_>
      222. 99. 107.</_>
    <_>
      190. 106. 93.</_>
    <_>
      86. 125. 116.</_>
    <_>
      140. 139. 69.</_>
    <_>
      131. 142. 70.</_>
    <_>
      147. 142. 81.</_>
    <_>
      234. 88. 127.</_>
    <_>
      253. 120. 152.</_>
    <_>
      250. 113. 181.</_>
    <_>
      252. 118. 159.</_>
    <_>
      240. 97. 119.</_>
    <_>
      154. 147. 145.</_>
    <_>
      255. 128. 128.</_>
    <_>
      144. 182. 144.</_>
    <_>
      172. 140. 80.</_>
    <_>
      175. 147. 84.</_>
    <_>
      111. 168. 140.</_>
    <_>
      115. 174. 146.</_>
    <_>
      139. 192. 147.</_>
    <_>
      136. 198. 167.</_>
    <_>
      93. 150. 136.</_>
    <_>
      188. 119. 131.</_>
    <_>
      178. 122. 134.</_>
    <_>
      248. 114. 124.</_>
    <_>
      233. 120. 114.</_>
    <_>
      216. 109. 104.</_>
    <_>
      141. 173. 136.</_>
    <_>
      78. 145. 79.</_>
    <_>
      73. 128. 130.</_>
    <_>
      29. 128. 128.</_>
    <_>
      169. 116. 124.</_>
    <_>
      164. 133. 145.</_>
    <_>
      78. 144. 83.</_>
    <_>
      248. 108. 212.</_>
    <_>
      100. 182. 161.</_>
    <_>
      94. 178. 158.</_>
    <_>
      212. 117. 186.</_>
    <_>
      73. 143. 83.</_>
    <_>
      70. 142. 84.</_>
    <_>
      68. 144. 85.</_>
    <_>
      65. 163. 143.</_>
    <_>
      74. 164. 148.</_>
    <_>
      65. 154. 139.</_>
    <_>
      216. 120. 128.</_>
    <_>
      234. 121. 140.</_>
    <_>
      89. 156. 64.</_>
    <_>
      68. 169. 58.</_>
    <_>
      79. 165. 60.</_>
    <_>
      239. 132. 141.</_>
    <_>
      229. 137. 112.</_>
    <_>
      64. 170. 60.</_>
    <_>
      71. 167. 59.</_>
    <_>
      82. 160. 63.</_>
    <_>
      95. 153. 65.</_>
    <_>
      218. 144. 109.</_>
    <_>
      182. 150. 146.</_>
    <_>
      171. 152. 144.</_>
    <_>
      254. 129. 127.</_>
    <_>
      191. 165. 115.</_>
    <_>
      144. 159. 105.</_>
    <_>
      122. 149. 97.</_>
    <_>
      127. 151. 98.</_>
    <_>
      142. 159. 102.</_>
    <_>
      208. 160. 118.</_>
    <_>
      170. 160. 108.</_>
    <_>
      34. 136. 103.</_>
    <_>
      44. 140. 100.</_>
    <_>
      51. 136. 103.</_>
    <_>
      57. 140. 104.</_>
    <_>
      38. 138. 105.</_>
    <_>
      172. 160. 102.</_>
    <_>
      160. 161. 102.</_>
    <_>
      96. 150. 98.</_>
    <_>
      110. 147. 68.</_>
    <_>
      105. 160. 101.</_>
    <_>
      148. 139. 69.</_>
    <_>
      207. 100. 99.</_>
    <_>
      49. 149. 126.</_>
    <_>
      86. 174. 146.</_>
    <_>
      79. 149. 74.</_>
    <_>
      180. 127. 121.</_>
    <_>
      143. 119. 128.</_>
    <_>
      158. 116. 132.</_>
    <_>
      205. 155. 141.</_>
    <_>
      226. 132. 163.</_>
    <_>
      216. 137. 158.</_>
    <_>
      233. 82. 114.</_></support_vectors>
  <decision_functions>
    <_>
      <sv_count>175</sv_count>
      <rho>-7.4256853169668413e-01</rho>
      <alpha>
        1.0402370407053606e-01 5.0000000000000000e-01
        5.0000000000000000e-01 1.1467032514829267e-01
        6.0896493118059274e-02 1.0793291092205407e-01
        5.0000000000000000e-01 3.1129839016041830e-02
        8.7287307923575794e-02 1.6485015015475671e-01
        8.0725335186049518e-02 1.6842695660679380e-01
        6.1819498931048100e-02 4.2450704387614502e-02
        9.0695328011513032e-02 3.8590463380752900e-02
        5.0000000000000000e-01 5.0000000000000000e-01
        1.4086151012668746e-01 9.2002251478188385e-02
        2.6288843674145815e-02 1.0614313169526932e-01
        4.6479070789303731e-02 3.0620875263977926e-01
        5.0000000000000000e-01 3.6057448847578610e-01
        3.2205118083250509e-02 4.8300641384064397e-01
        5.0000000000000000e-01 5.0000000000000000e-01
        9.3938857427786307e-02 1.8227859650376484e-02
        1.0007973143490917e-01 5.0000000000000000e-01
        4.6531421842024029e-01 5.0000000000000000e-01
        1.2343470291901248e-01 5.0000000000000000e-01
        2.7452960213862440e-02 5.0000000000000000e-01
        5.0000000000000000e-01 2.5448527850961657e-02
        5.0000000000000000e-01 5.0000000000000000e-01
        5.0000000000000000e-01 5.0000000000000000e-01
        8.0376476544653838e-02 1.4976829394616345e-01
        6.1171395756760338e-02 5.0000000000000000e-01
        5.0000000000000000e-01 5.0000000000000000e-01
        5.0000000000000000e-01 1.4064066717537101e-02
        3.4399245144053077e-02 5.0000000000000000e-01
        5.0000000000000000e-01 3.5217939018949507e-01
        6.3564111444531515e-02 2.9452249214855608e-01
        7.9260759793888927e-02 8.1511638947355913e-02
        7.5159495232559589e-02 1.2507581633279893e-01
        5.8532964417385050e-02 4.0565927698967275e-02
        4.0972113932824554e-04 1.4325675898745280e-01
        5.0000000000000000e-01 4.2933070841894024e-02
        2.4006456120148952e-02 1.1215054247361793e-01
        2.7558728812871069e-01 7.1577345478908871e-02
        7.8002479539908132e-02 5.2744927212999462e-02
        1.4366137567100126e-01 5.8864406135607873e-02
        6.7612298675231136e-02 6.1595622706868240e-02
        1.9362401833145897e-02 9.4599863874701068e-02
        1.7889347992203979e-02 5.7062403764903284e-02
        1.9879559620770103e-02 6.4804446736734175e-02
        3.3920265874802957e-02 3.3278623783651921e-02
        1.5338138938761178e-01 5.0000000000000000e-01
        5.0000000000000000e-01 2.9407445322606449e-02
        5.0000000000000000e-01 4.8506805405931580e-01
        5.0000000000000000e-01 2.2486648322320649e-01
        5.0000000000000000e-01 5.0000000000000000e-01
        2.0357865031905656e-01 7.3591545078271536e-02
        1.0226965319765426e-01 1.0828305421138643e-01
        2.1218189960507564e-02 3.6871369353620086e-02
        8.0669058933495894e-02 1.6693554965825799e-01
        4.2408804462021360e-02 3.6123416254271769e-02
        8.8621098694169800e-02 5.0000000000000000e-01
        2.4400101643747396e-02 3.9388244119937986e-02
        8.4718628964670376e-02 5.3416929900234313e-02
        9.2857406766012035e-02 -5.0000000000000000e-01
        -5.0000000000000000e-01 -5.0000000000000000e-01
        -5.0000000000000000e-01 -5.0000000000000000e-01
        -4.2233375948770813e-01 -5.0000000000000000e-01
        -5.0000000000000000e-01 -5.0000000000000000e-01
        -5.0000000000000000e-01 -6.6806978660266664e-02
        -5.0000000000000000e-01 -7.1594872166277730e-03
        -1.0017455840772214e-01 -5.0000000000000000e-01
        -1.9380728195796232e-01 -5.0000000000000000e-01
        -5.0000000000000000e-01 -5.0000000000000000e-01
        -5.0000000000000000e-01 -5.0000000000000000e-01
        -1.2624132712251102e-01 -5.0000000000000000e-01
        -5.0000000000000000e-01 -1.9921490494508123e-01
        -3.3552290131447685e-02 -2.6535680341137408e-01
        -5.0000000000000000e-01 -5.0000000000000000e-01
        -5.0000000000000000e-01 -5.0000000000000000e-01
        -5.0000000000000000e-01 -5.0000000000000000e-01
        -5.0000000000000000e-01 -4.4313061470107273e-01
        -1.2565890951886509e-02 -5.0000000000000000e-01
        -5.0000000000000000e-01 -5.0000000000000000e-01
        -5.0000000000000000e-01 -5.0000000000000000e-01
        -6.6771705306083728e-02 -5.0000000000000000e-01
        -5.0000000000000000e-01 -5.0000000000000000e-01
        -5.0000000000000000e-01 -4.9209133852687284e-02
        -5.0000000000000000e-01 -5.0000000000000000e-01
        -5.0000000000000000e-01 -1.1674587858304249e-01
        -1.3506035105709360e-01 -5.0000000000000000e-01
        -2.6377993922544724e-01 -5.0000000000000000e-01
        -5.0000000000000000e-01 -5.0000000000000000e-01
        -3.9542739597568166e-01 -5.0000000000000000e-01
        -3.3525350900094847e-01</alpha>
      <index>
        101 103 102 100 99 94 93 98 97 96 95 107 106 105 104 81 80 79 78
        82 75 74 77 76 92 91 90 85 84 83 89 88 87 86 155 154 153 156 152
        163 162 151 161 160 159 158 157 142 143 141 140 139 138 137 145
        150 149 148 147 146 144 173 172 171 170 169 168 174 167 166 165
        164 115 114 119 118 117 116 112 111 110 109 108 113 132 131 130
        129 128 127 126 136 135 134 133 121 120 125 124 123 122 66 65 62
        63 61 60 64 73 72 71 67 68 70 69 16 9 8 14 13 12 11 10 15 23 22
        21 20 0 17 19 18 3 2 1 5 4 6 7 43 38 37 36 35 42 41 40 39 55 54
        56 53 52 51 59 58 57 45 50 49 48 47 46 44 24 31 30 29 34 33 32
        27 26 25 28</index></_></decision_functions></opencv_ml_svm>
</opencv_storage>
