<?xml version="1.0"?>
<opencv_storage>
<opencv_ml_svm>
  <format>3</format>
  <svmType>C_SVC</svmType>
  <kernel>
    <type>RBF</type>
    <gamma>1.5000000000000001e-04</gamma></kernel>
  <C>5.0000000000000000e-01</C>
  <term_criteria><epsilon>1.1920928955078125e-07</epsilon></term_criteria>
  <var_count>3</var_count>
  <class_count>2</class_count>
  <class_labels type_id="opencv-matrix">
    <rows>2</rows>
    <cols>1</cols>
    <dt>i</dt>
    <data>
      -1 1</data></class_labels>
  <sv_total>46</sv_total>
  <support_vectors>
    <_>
      94. 170. 152.</_>
    <_>
      93. 171. 151.</_>
    <_>
      89. 169. 147.</_>
    <_>
      84. 168. 151.</_>
    <_>
      83. 169. 148.</_>
    <_>
      76. 163. 147.</_>
    <_>
      78. 166. 145.</_>
    <_>
      72. 163. 144.</_>
    <_>
      70. 160. 144.</_>
    <_>
      73. 165. 142.</_>
    <_>
      74. 162. 133.</_>
    <_>
      114. 173. 154.</_>
    <_>
      142. 177. 162.</_>
    <_>
      141. 187. 167.</_>
    <_>
      135. 184. 167.</_>
    <_>
      109. 176. 153.</_>
    <_>
      144. 189. 167.</_>
    <_>
      137. 190. 171.</_>
    <_>
      128. 185. 166.</_>
    <_>
      103. 167. 156.</_>
    <_>
      102. 172. 154.</_>
    <_>
      120. 180. 169.</_>
    <_>
      99. 140. 142.</_>
    <_>
      73. 134. 138.</_>
    <_>
      69. 138. 134.</_>
    <_>
      95. 141. 134.</_>
    <_>
      68. 154. 102.</_>
    <_>
      138. 152. 169.</_>
    <_>
      67. 142. 130.</_>
    <_>
      114. 173. 96.</_>
    <_>
      100. 169. 94.</_>
    <_>
      117. 174. 94.</_>
    <_>
      121. 175. 95.</_>
    <_>
      133. 152. 168.</_>
    <_>
      138. 151. 173.</_>
    <_>
      139. 153. 175.</_>
    <_>
      44. 133. 131.</_>
    <_>
      67. 135. 138.</_>
    <_>
      123. 152. 168.</_>
    <_>
      130. 154. 174.</_>
    <_>
      131. 153. 175.</_>
    <_>
      134. 152. 169.</_>
    <_>
      136. 151. 169.</_>
    <_>
      146. 157. 183.</_>
    <_>
      88. 146. 138.</_>
    <_>
      110. 144. 147.</_></support_vectors>
  <decision_functions>
    <_>
      <sv_count>46</sv_count>
      <rho>-9.1269514282151343e-01</rho>
      <alpha>
        5.0000000000000000e-01 5.0000000000000000e-01
        5.0000000000000000e-01 1.9239958934189400e-01
        5.0000000000000000e-01 4.2917476304459418e-01
        5.0000000000000000e-01 5.0000000000000000e-01
        5.0000000000000000e-01 5.0000000000000000e-01
        5.0000000000000000e-01 5.0000000000000000e-01
        5.0000000000000000e-01 5.0000000000000000e-01
        5.0000000000000000e-01 5.0000000000000000e-01
        2.2276862237150427e-01 5.0000000000000000e-01
        5.0000000000000000e-01 2.9070712160108830e-01
        5.0000000000000000e-01 5.0000000000000000e-01
        5.0000000000000000e-01 2.3266428519384225e-02
        -5.0000000000000000e-01 -5.0000000000000000e-01
        -5.0000000000000000e-01 -5.0000000000000000e-01
        -1.5831652487846509e-01 -5.0000000000000000e-01
        -5.0000000000000000e-01 -5.0000000000000000e-01
        -5.0000000000000000e-01 -5.0000000000000000e-01
        -5.0000000000000000e-01 -5.0000000000000000e-01
        -5.0000000000000000e-01 -5.0000000000000000e-01
        -5.0000000000000000e-01 -5.0000000000000000e-01
        -5.0000000000000000e-01 -5.0000000000000000e-01
        -5.0000000000000000e-01 -5.0000000000000000e-01
        -5.0000000000000000e-01 -5.0000000000000000e-01</alpha>
      <index>
        29 30 28 31 32 36 37 38 39 40 41 42 44 45 43 33 34 35 22 26 27
        24 23 25 15 14 13 12 1 2 3 4 5 6 7 8 9 10 11 18 19 20 21 0 16 17</index></_></decision_functions></opencv_ml_svm>
</opencv_storage>
