%YAML:1.0
---
opencv_ml_ann_mlp:
   format: 3
   layer_sizes: [ 2, 6, 1 ]
   activation_function: SIGMOID_SYM
   f_param1: 6.6666666666666663e-01
   f_param2: 1.7159000000000000e+00
   min_val: -9.4999999999999996e-01
   max_val: 9.4999999999999996e-01
   min_val1: -9.7999999999999998e-01
   max_val1: 9.7999999999999998e-01
   training_params:
      train_method: BACKPROP
      dw_scale: 1.0000000000000001e-01
      moment_scale: 1.0000000000000001e-01
      term_criteria:
         iterations: 10000
   input_scale:
      - 6.0341900349567285e-03
      - -1.8504849440533968e+00
      - 6.3164018969094678e-03
      - -1.2159073651550725e+00
   output_scale:
      - 5.2631578947368418e-01
      - 4.9999999999999994e-01
   inv_output_scale:
      - 1.8999999999999999e+00
      - -9.4999999999999996e-01
   weights:
      -
         - -8.3447095845816821e-01
         - -1.7132435603849522e-01
         - 5.8735560333641035e-01
         - 1.3068911988377185e+00
         - -3.7935950195899659e-01
         - 2.2511355913014808e+00
         - 3.4137865755245805e-01
         - -6.1295585928329133e-01
         - -5.3569067144727900e-01
         - -6.9954187498539844e-01
         - -5.6452962306430610e-01
         - -2.3632876376817817e+00
         - 3.8882292178864630e-01
         - 3.4082146434888749e-01
         - 4.5219654552064961e-02
         - 6.3746005360606117e-01
         - -2.9941146314513417e-02
         - 1.6299427706157275e+00
      -
         - -6.0293643352774184e-01
         - 2.1183777229868722e-01
         - 7.1188774471236316e-01
         - -1.4266314889346854e-01
         - 1.0071856902075252e-01
         - -1.7118529700298235e+00
         - 3.3026912676915321e-01
